<?xml version="1.0"?>
<opencv_storage>
<!-- Created using Computer Vision Toolbox(tm) for MATLAB(R) -->
<!-- Version 9.6.0.1114505 (R2019a) Update 2 -->
<!-- Compatible with OpenCV 3.4 -->
<cascade>
  <stageType>BOOST</stageType>
  <featureType>HOG</featureType>
  <height>35</height>
  <width>32</width>
  <stageParams>
    <boostType>GAB</boostType>
    <minHitRate>9.9500000476837158e-01</minHitRate>
    <maxFalseAlarm>9.9999997764825821e-03</maxFalseAlarm>
    <weightTrimRate>9.4999999999999996e-01</weightTrimRate>
    <maxDepth>1</maxDepth>
    <maxWeakCount>100</maxWeakCount></stageParams>
  <featureParams>
    <maxCatCount>0</maxCatCount>
    <featSize>36</featSize></featureParams>
  <stageNum>4</stageNum>
  <stages>
    <!-- stage 0 -->
    <_>
      <maxWeakCount>3</maxWeakCount>
      <stageThreshold>9.8769366741180420e-01</stageThreshold>
      <weakClassifiers>
        <_>
          <internalNodes>
            0 -1 17 4.8491470515727997e-02</internalNodes>
          <leafValues>
            -9.4350284337997437e-01 1.</leafValues></_>
        <_>
          <internalNodes>
            0 -1 19 4.3300792574882507e-02</internalNodes>
          <leafValues>
            -9.6719175577163696e-01 9.6320599317550659e-01</leafValues></_>
        <_>
          <internalNodes>
            0 -1 16 4.8265703022480011e-02</internalNodes>
          <leafValues>
            -9.5909714698791504e-01 9.6799057722091675e-01</leafValues></_></weakClassifiers></_>
    <!-- stage 1 -->
    <_>
      <maxWeakCount>4</maxWeakCount>
      <stageThreshold>-1.8143316730856895e-02</stageThreshold>
      <weakClassifiers>
        <_>
          <internalNodes>
            0 -1 20 3.6964341998100281e-02</internalNodes>
          <leafValues>
            -9.3181818723678589e-01 9.5121949911117554e-01</leafValues></_>
        <_>
          <internalNodes>
            0 -1 18 5.8641724288463593e-02</internalNodes>
          <leafValues>
            -8.9451348781585693e-01 8.7755584716796875e-01</leafValues></_>
        <_>
          <internalNodes>
            0 -1 8 1.0231174528598785e-02</internalNodes>
          <leafValues>
            8.0754202604293823e-01 -8.0661624670028687e-01</leafValues></_>
        <_>
          <internalNodes>
            0 -1 3 9.4189517199993134e-02</internalNodes>
          <leafValues>
            -7.7142298221588135e-01 9.5536440610885620e-01</leafValues></_></weakClassifiers></_>
    <!-- stage 2 -->
    <_>
      <maxWeakCount>6</maxWeakCount>
      <stageThreshold>5.1343500614166260e-01</stageThreshold>
      <weakClassifiers>
        <_>
          <internalNodes>
            0 -1 7 1.0564757883548737e-01</internalNodes>
          <leafValues>
            -8.4971100091934204e-01 7.1764707565307617e-01</leafValues></_>
        <_>
          <internalNodes>
            0 -1 2 5.1411058753728867e-02</internalNodes>
          <leafValues>
            -9.2262864112854004e-01 5.1393520832061768e-01</leafValues></_>
        <_>
          <internalNodes>
            0 -1 12 3.2229218631982803e-02</internalNodes>
          <leafValues>
            -8.0874997377395630e-01 7.1422976255416870e-01</leafValues></_>
        <_>
          <internalNodes>
            0 -1 11 1.5005664899945259e-02</internalNodes>
          <leafValues>
            -9.3414980173110962e-01 4.9202603101730347e-01</leafValues></_>
        <_>
          <internalNodes>
            0 -1 13 9.3720167875289917e-02</internalNodes>
          <leafValues>
            -7.4490350484848022e-01 6.0933727025985718e-01</leafValues></_>
        <_>
          <internalNodes>
            0 -1 5 9.0821189805865288e-03</internalNodes>
          <leafValues>
            5.5659747123718262e-01 -8.2918101549148560e-01</leafValues></_></weakClassifiers></_>
    <!-- stage 3 -->
    <_>
      <maxWeakCount>8</maxWeakCount>
      <stageThreshold>5.7025194168090820e-01</stageThreshold>
      <weakClassifiers>
        <_>
          <internalNodes>
            0 -1 0 1.2265187501907349e-01</internalNodes>
          <leafValues>
            -7.3417723178863525e-01 7.3333334922790527e-01</leafValues></_>
        <_>
          <internalNodes>
            0 -1 1 9.3601979315280914e-03</internalNodes>
          <leafValues>
            -9.0875625610351563e-01 5.1737177371978760e-01</leafValues></_>
        <_>
          <internalNodes>
            0 -1 14 4.8234120011329651e-02</internalNodes>
          <leafValues>
            -7.4836993217468262e-01 6.3103991746902466e-01</leafValues></_>
        <_>
          <internalNodes>
            0 -1 15 1.5857312828302383e-02</internalNodes>
          <leafValues>
            4.6466341614723206e-01 -9.8975372314453125e-01</leafValues></_>
        <_>
          <internalNodes>
            0 -1 6 1.2044625356793404e-02</internalNodes>
          <leafValues>
            -8.2339358329772949e-01 5.6113266944885254e-01</leafValues></_>
        <_>
          <internalNodes>
            0 -1 9 1.7049724236130714e-02</internalNodes>
          <leafValues>
            4.4661283493041992e-01 -8.1363040208816528e-01</leafValues></_>
        <_>
          <internalNodes>
            0 -1 4 7.2969585657119751e-02</internalNodes>
          <leafValues>
            -7.9745942354202271e-01 6.6582828760147095e-01</leafValues></_>
        <_>
          <internalNodes>
            0 -1 10 1.2584376335144043e-01</internalNodes>
          <leafValues>
            -5.5609172582626343e-01 8.8336491584777832e-01</leafValues></_></weakClassifiers></_></stages>
  <features>
    <_>
      <rect>
        0 16 8 8 17</rect></_>
    <_>
      <rect>
        4 0 8 8 30</rect></_>
    <_>
      <rect>
        4 4 8 8 24</rect></_>
    <_>
      <rect>
        4 4 8 8 35</rect></_>
    <_>
      <rect>
        4 16 8 8 24</rect></_>
    <_>
      <rect>
        4 16 8 8 28</rect></_>
    <_>
      <rect>
        8 12 8 8 30</rect></_>
    <_>
      <rect>
        8 16 8 8 8</rect></_>
    <_>
      <rect>
        8 16 8 8 26</rect></_>
    <_>
      <rect>
        12 8 8 8 33</rect></_>
    <_>
      <rect>
        12 12 8 8 8</rect></_>
    <_>
      <rect>
        12 12 8 8 16</rect></_>
    <_>
      <rect>
        12 16 8 8 7</rect></_>
    <_>
      <rect>
        12 16 8 8 28</rect></_>
    <_>
      <rect>
        16 4 8 8 15</rect></_>
    <_>
      <rect>
        16 16 8 8 24</rect></_>
    <_>
      <rect>
        0 0 8 16 24</rect></_>
    <_>
      <rect>
        4 0 8 16 24</rect></_>
    <_>
      <rect>
        12 0 8 16 28</rect></_>
    <_>
      <rect>
        16 0 8 16 28</rect></_>
    <_>
      <rect>
        0 0 16 16 1</rect></_></features></cascade>
</opencv_storage>
